//Numpy array shape [3, 3, 1, 8]
//Min -1.406250000000
//Max 1.085937500000
//Number of zeros 0

#ifndef W2_H_
#define W2_H_

#ifndef __SYNTHESIS__
weight2_t w2[72];
#else
weight2_t w2[72] = {-0.1875000, 0.1640625, 0.2421875, -0.0859375, 0.5312500, -0.4453125, 0.3750000, -0.3828125, 0.1406250, -0.7500000, -1.4062500, 0.0703125, 0.4921875, 0.7343750, 0.0468750, -0.6640625, 0.7187500, -0.1250000, -0.7031250, -0.1484375, 0.2265625, -0.5156250, -0.2187500, -0.0781250, 0.1250000, 0.1406250, 0.0390625, 0.0234375, -0.5781250, 0.2421875, -0.3984375, 0.5859375, -0.3593750, -0.6093750, -0.6718750, -0.2421875, -0.8671875, -0.1015625, -0.4453125, 0.8437500, 0.0703125, -0.0781250, -0.0781250, -0.3593750, -0.8671875, -0.5078125, -0.0703125, -0.0781250, 0.5781250, 0.4687500, -0.7656250, -0.3671875, -0.3750000, 0.8515625, -1.3593750, 1.0859375, -0.0468750, -1.2031250, 0.9453125, 0.0546875, 0.1250000, 0.2421875, -0.8593750, 0.8046875, 0.8671875, 0.8046875, -0.6718750, -0.6250000, -0.2734375, -0.7890625, -0.1093750, 0.4296875};
#endif

#endif
