//Numpy array shape [24, 12]
//Min -0.984375000000
//Max 0.964843750000
//Number of zeros 86

#ifndef W6_H_
#define W6_H_

#ifndef __SYNTHESIS__
weight6_t w6[288];
#else
weight6_t w6[288] = {-0.332031250, 0.000000000, 0.335937500, 0.367187500, 0.000000000, -0.511718750, -0.201171875, 0.734375000, 0.000000000, -0.474609375, -0.214843750, 0.054687500, 0.218750000, -0.417968750, -0.539062500, 0.130859375, -0.281250000, -0.265625000, -0.402343750, 0.408203125, -0.478515625, 0.439453125, 0.513671875, -0.126953125, 0.000000000, -0.140625000, 0.000000000, 0.708984375, -0.148437500, 0.000000000, 0.000000000, -0.148437500, 0.000000000, 0.246093750, -0.314453125, 0.191406250, 0.361328125, -0.250000000, 0.003906250, 0.556640625, -0.306640625, -0.078125000, 0.226562500, 0.142578125, -0.281250000, 0.171875000, -0.984375000, 0.218750000, -0.417968750, 0.000000000, -0.302734375, 0.353515625, -0.292968750, 0.105468750, 0.000000000, -0.115234375, -0.132812500, 0.445312500, -0.462890625, 0.000000000, 0.472656250, 0.306640625, 0.500000000, 0.554687500, -0.179687500, 0.000000000, 0.046875000, 0.000000000, 0.000000000, 0.158203125, -0.679687500, -0.115234375, 0.000000000, 0.000000000, -0.351562500, 0.000000000, -0.634765625, 0.369140625, -0.173828125, 0.000000000, -0.027343750, -0.103515625, -0.304687500, -0.322265625, -0.113281250, 0.371093750, 0.458984375, 0.779296875, 0.000000000, 0.000000000, 0.000000000, -0.103515625, -0.214843750, 0.000000000, -0.513671875, 0.240234375, 0.000000000, 0.236328125, 0.269531250, 0.000000000, 0.308593750, -0.548828125, 0.000000000, 0.705078125, -0.314453125, 0.000000000, 0.000000000, 0.152343750, 0.511718750, -0.591796875, -0.187500000, -0.310546875, -0.757812500, 0.189453125, 0.000000000, -0.369140625, 0.000000000, 0.197265625, 0.000000000, 0.000000000, 0.083984375, 0.591796875, -0.380859375, 0.000000000, 0.000000000, 0.000000000, -0.664062500, -0.390625000, -0.205078125, 0.263671875, 0.265625000, 0.000000000, 0.000000000, 0.369140625, 0.000000000, 0.000000000, -0.048828125, 0.138671875, 0.824218750, 0.000000000, 0.095703125, 0.000000000, -0.263671875, 0.000000000, 0.730468750, 0.000000000, 0.000000000, 0.039062500, 0.000000000, 0.498046875, 0.267578125, -0.296875000, -0.279296875, -0.408203125, 0.097656250, 0.000000000, -0.300781250, 0.214843750, 0.000000000, -0.093750000, 0.505859375, 0.548828125, 0.302734375, -0.964843750, 0.000000000, -0.220703125, -0.314453125, 0.673828125, 0.470703125, 0.000000000, 0.326171875, -0.427734375, 0.185546875, 0.000000000, 0.203125000, 0.236328125, -0.408203125, -0.402343750, 0.132812500, -0.125000000, 0.000000000, -0.800781250, -0.115234375, -0.697265625, -0.375000000, 0.341796875, 0.236328125, 0.000000000, 0.373046875, 0.000000000, 0.000000000, 0.193359375, -0.222656250, 0.269531250, -0.810546875, 0.029296875, 0.000000000, -0.333984375, -0.556640625, -0.144531250, -0.740234375, 0.000000000, -0.031250000, -0.386718750, 0.000000000, -0.216796875, 0.000000000, 0.523437500, 0.236328125, 0.000000000, 0.455078125, 0.000000000, 0.000000000, 0.222656250, 0.703125000, 0.000000000, 0.283203125, -0.343750000, 0.000000000, 0.000000000, 0.296875000, -0.265625000, 0.537109375, 0.150390625, 0.417968750, 0.000000000, 0.000000000, 0.140625000, 0.400390625, 0.000000000, -0.253906250, -0.410156250, 0.378906250, 0.000000000, 0.451171875, 0.281250000, -0.583984375, -0.126953125, -0.462890625, 0.000000000, 0.111328125, 0.187500000, 0.000000000, -0.134765625, 0.000000000, 0.000000000, 0.000000000, 0.287109375, -0.427734375, 0.136718750, -0.185546875, 0.000000000, 0.449218750, -0.505859375, 0.000000000, 0.388671875, 0.251953125, 0.000000000, 0.824218750, 0.246093750, 0.000000000, 0.964843750, 0.000000000, 0.207031250, 0.386718750, 0.000000000, 0.000000000, 0.000000000, 0.000000000, 0.083984375, 0.000000000, 0.242187500, -0.488281250, -0.644531250, -0.201171875, -0.031250000, 0.000000000, 0.148437500, -0.705078125, 0.000000000, 0.386718750, 0.000000000, -0.427734375, -0.960937500, -0.166015625, 0.125000000, 0.000000000, 0.636718750};
#endif

#endif
