//Numpy array shape [32, 16]
//Min -0.996093750000
//Max 0.998046875000
//Number of zeros 207

#ifndef W6_H_
#define W6_H_

#ifndef __SYNTHESIS__
weight6_t w6[512];
#else
weight6_t w6[512] = {0.000000000, -0.025390625, 0.000000000, 0.000000000, 0.000000000, 0.000000000, -0.525390625, 0.025390625, 0.000000000, 0.000000000, 0.000000000, 0.000000000, 0.000000000, 0.126953125, 0.000000000, -0.046875000, 0.000000000, 0.000000000, 0.000000000, 0.000000000, 0.000000000, -0.705078125, -0.201171875, 0.212890625, -0.035156250, 0.000000000, 0.000000000, -0.355468750, 0.068359375, -0.089843750, 0.000000000, 0.000000000, 0.519531250, 0.000000000, -0.125000000, 0.000000000, 0.626953125, -0.517578125, -0.166015625, 0.000000000, 0.000000000, 0.000000000, -0.164062500, 0.025390625, 0.000000000, 0.000000000, 0.000000000, 0.000000000, 0.000000000, 0.160156250, 0.000000000, -0.140625000, 0.000000000, 0.000000000, -0.890625000, 0.000000000, 0.052734375, 0.000000000, 0.000000000, 0.000000000, -0.226562500, 0.248046875, -0.037109375, 0.000000000, 0.011718750, 0.000000000, 0.234375000, 0.152343750, 0.216796875, 0.177734375, -0.339843750, 0.251953125, 0.384765625, -0.322265625, -0.068359375, 0.000000000, -0.449218750, 0.361328125, 0.000000000, -0.033203125, 0.201171875, 0.000000000, 0.000000000, 0.000000000, -0.253906250, 0.968750000, 0.000000000, 0.000000000, 0.248046875, 0.000000000, -0.298828125, 0.000000000, 0.000000000, -0.208984375, 0.003906250, 0.226562500, 0.306640625, -0.996093750, 0.279296875, 0.000000000, 0.000000000, 0.000000000, 0.000000000, 0.000000000, 0.000000000, 0.308593750, -0.144531250, -0.255859375, 0.156250000, -0.189453125, 0.000000000, 0.000000000, 0.259765625, -0.005859375, 0.191406250, 0.000000000, 0.078125000, -0.279296875, 0.000000000, -0.011718750, 0.000000000, -0.208984375, 0.371093750, 0.251953125, -0.189453125, 0.791015625, 0.000000000, 0.000000000, -0.416015625, -0.322265625, -0.474609375, 0.462890625, 0.000000000, 0.000000000, -0.716796875, 0.650390625, 0.312500000, 0.000000000, 0.324218750, 0.576171875, -0.490234375, 0.335937500, -0.865234375, 0.414062500, -0.144531250, 0.000000000, -0.386718750, 0.000000000, -0.404296875, 0.000000000, -0.113281250, 0.582031250, 0.732421875, 0.283203125, 0.183593750, 0.000000000, 0.000000000, -0.320312500, 0.013671875, 0.000000000, 0.000000000, 0.089843750, -0.220703125, -0.203125000, -0.050781250, 0.000000000, 0.226562500, -0.197265625, -0.232421875, -0.072265625, 0.000000000, 0.000000000, 0.208984375, -0.246093750, 0.000000000, -0.171875000, -0.085937500, -0.074218750, 0.000000000, -0.083984375, 0.193359375, -0.707031250, -0.183593750, -0.140625000, -0.089843750, 0.000000000, 0.000000000, 0.394531250, 0.000000000, 0.000000000, 0.001953125, -0.173828125, -0.261718750, 0.000000000, 0.203125000, 0.000000000, 0.000000000, 0.000000000, 0.287109375, 0.226562500, -0.373046875, 0.000000000, 0.316406250, -0.191406250, 0.000000000, 0.000000000, 0.000000000, 0.000000000, 0.000000000, 0.000000000, 0.000000000, 0.107421875, -0.476562500, 0.000000000, 0.998046875, -0.283203125, 0.000000000, 0.333984375, -0.291015625, 0.000000000, 0.000000000, 0.000000000, -0.046875000, 0.000000000, 0.330078125, 0.000000000, -0.734375000, -0.214843750, -0.261718750, -0.376953125, 0.000000000, 0.000000000, 0.000000000, 0.285156250, -0.314453125, -0.148437500, 0.253906250, -0.480468750, 0.000000000, -0.716796875, 0.000000000, 0.000000000, 0.000000000, -0.304687500, 0.000000000, 0.000000000, -0.375000000, 0.623046875, 0.083984375, 0.000000000, 0.873046875, 0.466796875, -0.492187500, 0.000000000, -0.011718750, -0.328125000, -0.433593750, -0.152343750, 0.000000000, -0.150390625, 0.000000000, 0.392578125, -0.306640625, -0.230468750, 0.000000000, 0.000000000, 0.224609375, 0.000000000, 0.000000000, 0.261718750, 0.187500000, 0.000000000, 0.000000000, 0.000000000, -0.218750000, 0.773437500, -0.166015625, 0.154296875, 0.000000000, -0.238281250, 0.000000000, 0.000000000, 0.000000000, -0.111328125, 0.138671875, -0.169921875, 0.000000000, 0.000000000, 0.000000000, -0.708984375, 0.000000000, 0.000000000, 0.376953125, -0.259765625, -0.386718750, 0.000000000, 0.000000000, 0.130859375, 0.080078125, 0.019531250, -0.623046875, 0.000000000, 0.371093750, 0.000000000, 0.000000000, 0.689453125, 0.259765625, 0.000000000, 0.000000000, -0.134765625, 0.000000000, 0.000000000, 0.000000000, 0.000000000, -0.519531250, 0.093750000, -0.390625000, -0.003906250, 0.050781250, 0.097656250, 0.394531250, 0.175781250, -0.992187500, -0.324218750, -0.392578125, -0.279296875, 0.726562500, 0.000000000, -0.306640625, -0.023437500, -0.251953125, -0.166015625, 0.291015625, -0.484375000, 0.000000000, -0.431640625, 0.000000000, 0.000000000, 0.212890625, -0.232421875, 0.000000000, 0.000000000, 0.000000000, 0.570312500, 0.000000000, 0.000000000, 0.150390625, 0.437500000, -0.462890625, 0.000000000, 0.000000000, -0.193359375, -0.251953125, -0.767578125, 0.000000000, 0.226562500, 0.076171875, 0.000000000, 0.394531250, 0.322265625, -0.091796875, 0.000000000, 0.109375000, 0.337890625, 0.000000000, 0.007812500, 0.000000000, -0.222656250, -0.392578125, 0.000000000, 0.000000000, 0.000000000, 0.000000000, 0.000000000, -0.390625000, 0.000000000, 0.107421875, 0.000000000, -0.283203125, 0.000000000, -0.009765625, -0.406250000, 0.062500000, 0.000000000, 0.009765625, 0.136718750, 0.000000000, 0.000000000, 0.000000000, 0.000000000, -0.998046875, 0.000000000, -0.023437500, -0.777343750, 0.000000000, 0.000000000, 0.095703125, 0.052734375, 0.292968750, 0.000000000, 0.000000000, 0.000000000, 0.000000000, 0.000000000, 0.140625000, -0.291015625, -0.068359375, 0.000000000, 0.000000000, -0.082031250, 0.000000000, -0.041015625, 0.029296875, -0.078125000, 0.177734375, 0.000000000, 0.345703125, -0.492187500, 0.000000000, 0.064453125, 0.154296875, 0.000000000, 0.216796875, 0.730468750, 0.000000000, 0.212890625, 0.000000000, 0.785156250, -0.160156250, 0.000000000, 0.000000000, 0.250000000, 0.529296875, -0.572265625, 0.000000000, 0.000000000, 0.000000000, 0.000000000, 0.000000000, 0.488281250, -0.052734375, -0.412109375, -0.115234375, 0.000000000, -0.164062500, 0.855468750, 0.248046875, 0.000000000, 0.515625000, -0.054687500, -0.269531250, -0.457031250, 0.000000000, 0.000000000, -0.248046875, 0.000000000, 0.000000000, -0.304687500, -0.242187500, -0.337890625, 0.212890625, 0.000000000, -0.634765625, 0.000000000, 0.253906250, 0.000000000, 0.246093750, -0.318359375, 0.000000000, 0.998046875, -0.117187500, 0.138671875, -0.345703125, -0.085937500, 0.318359375, 0.115234375, 0.000000000, 0.068359375, 0.000000000, -0.644531250, -0.714843750, -0.263671875, 0.000000000, 0.353515625, 0.224609375, 0.193359375, 0.406250000, 0.076171875, 0.423828125, 0.322265625, 0.601562500, 0.302734375, -0.511718750, 0.445312500, -0.421875000, 0.701171875, -0.390625000, 0.179687500, -0.470703125, 0.187500000, -0.662109375, 0.000000000, -0.203125000, 0.000000000, 0.630859375, 0.589843750, -0.242187500, -0.298828125, 0.255859375, -0.417968750, 0.003906250, 0.390625000};
#endif

#endif
