//Numpy array shape [3, 3, 2, 4]
//Min -1.164672851562
//Max 1.314117431641
//Number of zeros 0

#ifndef W6_H_
#define W6_H_

#ifndef __SYNTHESIS__
weight6_t w6[72];
#else
weight6_t w6[72] = {0.22915649414062, -0.44808959960938, -0.04766845703125, -0.12689208984375, -0.14422607421875, 0.59109497070312, 0.02145385742188, -0.06011962890625, -0.10192871093750, -0.65771484375000, 0.02807617187500, -0.01251220703125, -0.23171997070312, -0.31875610351562, 0.21969604492188, -0.12753295898438, -0.06893920898438, 0.47882080078125, -0.16265869140625, 0.06167602539062, -0.11730957031250, 0.23751831054688, 0.02755737304688, 0.04025268554688, 0.90512084960938, -0.33535766601562, -0.00677490234375, -0.53790283203125, 0.00079345703125, -0.67233276367188, 0.10842895507812, 0.30596923828125, 0.11453247070312, -0.30947875976562, -0.04656982421875, 0.01507568359375, 0.11746215820312, -0.00186157226562, 0.01885986328125, -0.38903808593750, 0.89880371093750, -0.14169311523438, -0.07333374023438, 0.32739257812500, 0.22824096679688, -0.04449462890625, 0.27532958984375, -0.05010986328125, -0.43496704101562, -0.95016479492188, -0.02096557617188, -0.67126464843750, 0.31860351562500, 0.04663085937500, -0.00482177734375, -0.35418701171875, -0.33981323242188, -0.12167358398438, 0.72436523437500, 0.05429077148438, -0.29708862304688, -0.12945556640625, -0.06927490234375, 0.40005493164062, 0.08441162109375, 0.22070312500000, 0.63690185546875, 0.50750732421875, -0.12664794921875, 0.03479003906250, -0.49783325195312, -0.54904174804688};
#endif

#endif
