//Numpy array shape [3, 3, 4, 8]
//Min -1.197938084602
//Max 0.985531330109
//Number of zeros 0

#ifndef W7_H_
#define W7_H_

#ifndef __SYNTHESIS__
conv2_weight_t w7[288];
#else
conv2_weight_t w7[288] = {-0.2440383583, 0.5012494922, 0.1022181138, -0.1106334627, 0.6662290096, -1.3457822800, -0.5669032931, -0.8641934991, 0.2010289282, 0.1056965813, -0.7068403959, 0.6720563769, -0.7878718972, 0.7200414538, -0.0868795067, 0.0841179565, 0.2805774808, 0.3113217652, 0.0115002366, 0.1516676396, -0.0121435244, 0.4685740471, -0.0186460521, 0.1094317585, -0.3227528632, -0.0771219879, 0.7140670419, -0.2490008324, 0.6650028825, 0.3867966831, 0.6497686505, 0.2300232202, 0.1129702479, -0.0348552056, -0.1060043350, 0.0600361042, -0.0720404312, -0.4214030504, -0.8788981438, 1.2927414179, -0.1371429265, -0.1400504261, 0.5519952178, -0.3969913423, 1.2121204138, -0.2411870211, 0.0807261392, -0.0208808128, -0.2805180252, 0.1410134882, -0.2254489958, 0.0868952721, -1.0407034159, 0.2093712389, -2.1091094017, -0.4819532633, -0.6055901647, -0.6347572207, 0.4728435576, -1.3187947273, -0.6022237539, 0.0999405980, 0.3772729039, 0.6302195191, 0.2488678545, 0.2079718858, -1.0827275515, -0.1830590963, -0.1011973023, 0.3257237375, -0.2690819800, 0.2391907275, -0.0185118373, -0.8115178943, 0.3048127592, 0.1311693490, 0.2265795469, -0.0984842703, -0.0799043179, -0.2259252518, -0.4198605418, -0.2490417361, 0.1404808313, -0.2618231475, -0.3925361931, -0.0418517366, -0.2177679390, -0.2863985598, 0.6373087168, -0.0750607178, -0.8478274941, 0.6582384706, 0.5558709502, -0.1615077853, 1.2769995928, -0.2463957071, -0.1847404987, 0.1130911633, -0.3460281193, -0.0378617533, -0.1337500513, -0.6342343092, -0.3070604205, 0.6034967899, -0.2125641257, -0.0590460226, -0.0396211706, 0.1469098181, 0.1987226456, 0.5288542509, 0.0142770121, -0.1744310111, -0.0443330370, -0.3153926134, -0.5610315204, -0.5581653714, -0.1847036481, 0.3715754449, -0.4031777680, 0.5938526392, -0.4751838148, 0.2123575211, -0.2365072668, 0.6483187079, -1.4735429287, -0.1924698800, -0.1291975528, 0.5900288224, -0.0369117074, -0.3125155866, -0.4949245751, -0.4313622713, -1.2443184853, 0.0868428797, 0.1975628585, -0.0116183013, -0.2517038882, -0.0067764269, 0.2139873058, 0.1758608222, 0.2891515195, -0.2291434556, 0.2146770209, -0.4405454397, -0.6918596029, -0.5943746567, -0.7202574611, -0.0585491322, -0.9676905870, 0.2502538860, -0.6959179640, -0.6920971870, -0.4612710476, -0.2974794805, -0.3220222592, -0.0315974802, -2.0082058907, 0.3573532999, 0.2416590303, 1.4856795073, -0.4850299060, -0.0344619527, -0.9902843237, -0.5342729092, -0.0531491823, -0.2420689911, 0.0083803814, 0.5627431870, 0.0418767780, -0.3576255739, 0.0341977030, 0.0731299296, -0.5335517526, 0.5395405889, 0.3483846188, -0.9531880617, -0.2954505980, 0.1987362057, -0.5273972750, -0.6301680803, 0.0726629794, -0.3532993197, -0.2477390915, -0.1484856904, -0.1878137887, 0.3990935385, -0.5540668368, 0.3501425087, -0.0960353911, 0.3678641021, 0.6526092887, 0.4352405071, -0.5410054326, -0.1089931503, -0.7201578021, 0.0826919898, -0.0626706854, 0.0627403557, 0.1668685526, -0.5841755271, -0.2725757062, 0.1550285965, 0.7462000847, 0.1306457072, -0.0077804895, -0.5138576627, 0.4097486138, -0.3844569921, -0.3607473969, -0.6721960306, 0.1224287227, -0.2037485391, -0.1611946821, 0.1924713999, -0.4639167488, 0.4508778155, -0.0221461654, 0.1703824401, -0.7384209037, 1.7179414034, -0.7084534764, -0.0089261346, -0.1867909431, 0.0749151036, -0.4923688769, 0.0684559718, 0.1096469015, 0.0571926497, 0.8419399261, 0.3866970241, -0.5330499411, 0.5927019119, 0.4668208361, -0.0345117860, 0.2782636583, 0.5084703565, 0.1886811852, -0.9830867052, 0.1539751589, -0.0490517281, -0.3244493604, 0.1237635389, -0.2201679349, 0.7465872765, -0.9215787649, -0.7322478294, -0.5543808341, -0.8917137384, 0.2754809260, 0.6041886210, -0.2029336989, 0.2365569919, 0.6273788810, -0.6015655994, 0.2693352401, 0.2790510058, -0.3823744357, 0.6795423627, -0.1462129653, -0.0960763916, 0.4582412243, -0.1881005764, -0.0424229950, -0.1166523248, 0.1734299213, -0.4552326500, 1.0484784842, 0.2491542697, -0.0172475949, -0.6120876670, 0.1402965784, 0.5199180841, -0.0045060641, 0.1543064415, -1.2775534391, -0.3483833075, 0.2472216189, -0.7789115310, -0.0459069833, -0.5725755095, -0.6267510653, -0.5696170926, -0.2522150576, -0.0044522425, 0.0103957420, -1.1757897139, -0.4507980347, 0.4735432565};
#endif

#endif
