//Numpy array shape [72]
//Min -0.994140625000
//Max 0.984375000000
//Number of zeros 0

#ifndef B9_H_
#define B9_H_

#ifndef __SYNTHESIS__
bias9_t b9[72];
#else
bias9_t b9[72] = {0.109375000, 0.304687500, 0.259765625, -0.224609375, 0.019531250, 0.089843750, -0.207031250, -0.117187500, -0.052734375, 0.056640625, 0.095703125, -0.333984375, -0.023437500, 0.363281250, 0.048828125, -0.044921875, 0.662109375, 0.257812500, -0.037109375, -0.093750000, -0.267578125, 0.312500000, 0.923828125, -0.062500000, -0.054687500, 0.150390625, 0.515625000, -0.048828125, 0.013671875, -0.458984375, 0.277343750, -0.083984375, -0.056640625, -0.517578125, 0.183593750, -0.232421875, -0.015625000, 0.449218750, -0.052734375, 0.355468750, 0.500000000, -0.615234375, 0.207031250, -0.486328125, 0.970703125, -0.994140625, 0.984375000, 0.871093750, -0.765625000, 0.082031250, -0.156250000, -0.025390625, -0.701171875, 0.074218750, 0.609375000, -0.054687500, -0.062500000, -0.191406250, -0.097656250, -0.994140625, -0.246093750, -0.146484375, -0.183593750, -0.019531250, -0.523437500, 0.425781250, 0.064453125, -0.138671875, 0.111328125, -0.246093750, 0.009765625, -0.087890625};
#endif

#endif
