//Numpy array shape [72, 3]
//Min -0.773437500000
//Max 0.720703125000
//Number of zeros 65

#ifndef W6_H_
#define W6_H_

#ifndef __SYNTHESIS__
weight6_t w6[216];
#else
weight6_t w6[216] = {0.000000000, -0.349609375, 0.296875000, 0.000000000, -0.240234375, 0.228515625, 0.000000000, 0.357421875, -0.394531250, -0.443359375, -0.009765625, 0.000000000, 0.000000000, 0.343750000, -0.298828125, 0.000000000, -0.439453125, 0.400390625, 0.000000000, -0.277343750, 0.257812500, -0.763671875, -0.210937500, -0.308593750, 0.000000000, 0.351562500, -0.339843750, 0.677734375, 0.242187500, 0.521484375, 0.000000000, 0.371093750, -0.345703125, 0.000000000, -0.298828125, 0.275390625, 0.000000000, -0.277343750, 0.273437500, 0.000000000, -0.449218750, 0.439453125, 0.000000000, -0.271484375, 0.289062500, 0.000000000, 0.349609375, -0.341796875, 0.000000000, -0.351562500, 0.365234375, 0.000000000, 0.332031250, -0.324218750, 0.000000000, 0.335937500, -0.314453125, 0.000000000, 0.287109375, -0.259765625, 0.000000000, -0.394531250, 0.316406250, 0.000000000, 0.320312500, -0.292968750, 0.000000000, 0.167968750, 0.000000000, 0.000000000, 0.267578125, -0.277343750, 0.000000000, -0.283203125, 0.302734375, 0.000000000, 0.451171875, -0.439453125, 0.000000000, 0.306640625, -0.257812500, 0.000000000, -0.330078125, 0.255859375, 0.000000000, 0.443359375, -0.361328125, 0.000000000, -0.285156250, 0.250000000, -0.179687500, -0.359375000, 0.261718750, 0.000000000, -0.343750000, 0.312500000, 0.000000000, 0.386718750, -0.312500000, 0.000000000, 0.289062500, -0.298828125, 0.000000000, 0.458984375, -0.429687500, 0.000000000, 0.324218750, -0.302734375, 0.000000000, -0.248046875, 0.251953125, 0.279296875, 0.273437500, -0.085937500, 0.443359375, -0.216796875, -0.224609375, 0.000000000, -0.275390625, 0.316406250, 0.000000000, -0.201171875, 0.203125000, 0.000000000, -0.210937500, 0.179687500, 0.000000000, -0.171875000, 0.148437500, 0.000000000, -0.298828125, 0.298828125, 0.000000000, 0.332031250, -0.248046875, 0.000000000, 0.000000000, 0.238281250, 0.000000000, 0.226562500, -0.175781250, 0.000000000, 0.251953125, -0.306640625, 0.000000000, -0.216796875, 0.193359375, 0.000000000, 0.347656250, -0.357421875, 0.000000000, 0.373046875, -0.351562500, 0.000000000, -0.406250000, 0.373046875, 0.000000000, 0.289062500, -0.240234375, 0.000000000, -0.275390625, 0.240234375, 0.000000000, 0.322265625, -0.261718750, 0.000000000, 0.232421875, -0.210937500, 0.000000000, -0.357421875, 0.375000000, 0.000000000, 0.208984375, -0.294921875, 0.000000000, -0.287109375, 0.277343750, 0.000000000, -0.179687500, 0.195312500, 0.000000000, -0.351562500, 0.363281250, 0.000000000, -0.376953125, 0.347656250, 0.000000000, -0.773437500, 0.720703125, -0.697265625, -0.253906250, -0.494140625, 0.000000000, 0.271484375, -0.238281250, 0.000000000, 0.412109375, -0.361328125, 0.337890625, -0.427734375, -0.388671875, 0.558593750, 0.269531250, 0.218750000, 0.000000000, -0.292968750, 0.333984375, 0.000000000, -0.255859375, 0.212890625, 0.000000000, 0.232421875, -0.208984375, 0.263671875, 0.189453125, 0.681640625};
#endif

#endif
